<?xml version="1.0"?>
<opencv_storage>
<cascade>
  <stageType>BOOST</stageType>
  <featureType>HAAR</featureType>
  <height>24</height>
  <width>24</width>
  <stageParams>
    <boostType>GAB</boostType>
    <minHitRate>9.9500000476837158e-01</minHitRate>
    <maxFalseAlarm>5.0000000000000000e-01</maxFalseAlarm>
    <weightTrimRate>9.4999999999999996e-01</weightTrimRate>
    <maxDepth>1</maxDepth>
    <maxWeakCount>100</maxWeakCount></stageParams>
  <featureParams>
    <maxCatCount>0</maxCatCount>
    <featSize>1</featSize>
    <mode>BASIC</mode></featureParams>
  <stageNum>14</stageNum>
  <stages>
    <!-- stage 0 -->
    <_>
      <maxWeakCount>5</maxWeakCount>
      <stageThreshold>-1.4169229269027710e+00</stageThreshold>
      <weakClassifiers>
        <_>
          <internalNodes>
            0 -1 69 -5.9995450079441071e-02</internalNodes>
          <leafValues>
            8.9473682641983032e-01 -9.0860784053802490e-01</leafValues></_>
        <_>
          <internalNodes>
            0 -1 40 4.9696028232574463e-02</internalNodes>
          <leafValues>
            -7.2135102748870850e-01 5.3452146053314209e-01</leafValues></_>
        <_>
          <internalNodes>
            0 -1 65 1.5308139845728874e-02</internalNodes>
          <leafValues>
            -5.9553927183151245e-01 6.1099541187286377e-01</leafValues></_>
        <_>
          <internalNodes>
            0 -1 2 -1.2421326339244843e-01</internalNodes>
          <leafValues>
            2.8595796227455139e-01 -9.5008838176727295e-01</leafValues></_>
        <_>
          <internalNodes>
            0 -1 79 7.4579799547791481e-03</internalNodes>
          <leafValues>
            -5.2877849340438843e-01 5.2261728048324585e-01</leafValues></_></weakClassifiers></_>
    <!-- stage 1 -->
    <_>
      <maxWeakCount>6</maxWeakCount>
      <stageThreshold>-2.2467229366302490e+00</stageThreshold>
      <weakClassifiers>
        <_>
          <internalNodes>
            0 -1 36 6.0796268284320831e-02</internalNodes>
          <leafValues>
            -9.1443848609924316e-01 7.7272725105285645e-01</leafValues></_>
        <_>
          <internalNodes>
            0 -1 1 -9.8673266172409058e-01</internalNodes>
          <leafValues>
            -8.5393774509429932e-01 3.8281732797622681e-01</leafValues></_>
        <_>
          <internalNodes>
            0 -1 5 3.0963480472564697e-02</internalNodes>
          <leafValues>
            -6.2790060043334961e-01 4.9849924445152283e-01</leafValues></_>
        <_>
          <internalNodes>
            0 -1 71 5.2898135036230087e-02</internalNodes>
          <leafValues>
            -3.3174756169319153e-01 8.1477576494216919e-01</leafValues></_>
        <_>
          <internalNodes>
            0 -1 10 2.5063857436180115e-02</internalNodes>
          <leafValues>
            2.8732135891914368e-01 -8.7131363153457642e-01</leafValues></_>
        <_>
          <internalNodes>
            0 -1 75 -1.4075199142098427e-02</internalNodes>
          <leafValues>
            -9.8828810453414917e-01 1.9398014247417450e-01</leafValues></_></weakClassifiers></_>
    <!-- stage 2 -->
    <_>
      <maxWeakCount>5</maxWeakCount>
      <stageThreshold>-1.6943345069885254e+00</stageThreshold>
      <weakClassifiers>
        <_>
          <internalNodes>
            0 -1 82 1.6060221940279007e-02</internalNodes>
          <leafValues>
            -8.9251846075057983e-01 8.6666667461395264e-01</leafValues></_>
        <_>
          <internalNodes>
            0 -1 56 -1.0000691562891006e-01</internalNodes>
          <leafValues>
            -7.6465046405792236e-01 5.0357794761657715e-01</leafValues></_>
        <_>
          <internalNodes>
            0 -1 4 5.6414932012557983e-02</internalNodes>
          <leafValues>
            -4.7507029771804810e-01 7.0005792379379272e-01</leafValues></_>
        <_>
          <internalNodes>
            0 -1 22 2.6544362772256136e-03</internalNodes>
          <leafValues>
            2.6776322722434998e-01 -9.3281477689743042e-01</leafValues></_>
        <_>
          <internalNodes>
            0 -1 14 -3.3398354426026344e-03</internalNodes>
          <leafValues>
            -9.7922420501708984e-01 1.7014153301715851e-01</leafValues></_></weakClassifiers></_>
    <!-- stage 3 -->
    <_>
      <maxWeakCount>6</maxWeakCount>
      <stageThreshold>-1.9625873565673828e+00</stageThreshold>
      <weakClassifiers>
        <_>
          <internalNodes>
            0 -1 72 -4.7841820865869522e-02</internalNodes>
          <leafValues>
            7.6470589637756348e-01 -8.9629632234573364e-01</leafValues></_>
        <_>
          <internalNodes>
            0 -1 27 4.9643129110336304e-02</internalNodes>
          <leafValues>
            -6.5754574537277222e-01 4.6435600519180298e-01</leafValues></_>
        <_>
          <internalNodes>
            0 -1 17 -7.9168193042278290e-02</internalNodes>
          <leafValues>
            -6.2634289264678955e-01 3.3149033784866333e-01</leafValues></_>
        <_>
          <internalNodes>
            0 -1 86 4.6284254640340805e-03</internalNodes>
          <leafValues>
            1.9679608941078186e-01 -8.8359808921813965e-01</leafValues></_>
        <_>
          <internalNodes>
            0 -1 76 -1.9328363239765167e-02</internalNodes>
          <leafValues>
            9.1352021694183350e-01 -2.1987357735633850e-01</leafValues></_>
        <_>
          <internalNodes>
            0 -1 25 -1.5513451769948006e-02</internalNodes>
          <leafValues>
            -9.1939824819564819e-01 2.4067507684230804e-01</leafValues></_></weakClassifiers></_>
    <!-- stage 4 -->
    <_>
      <maxWeakCount>5</maxWeakCount>
      <stageThreshold>-1.7422530651092529e+00</stageThreshold>
      <weakClassifiers>
        <_>
          <internalNodes>
            0 -1 43 7.6133459806442261e-02</internalNodes>
          <leafValues>
            -8.9618641138076782e-01 7.1428573131561279e-01</leafValues></_>
        <_>
          <internalNodes>
            0 -1 55 3.0065249651670456e-02</internalNodes>
          <leafValues>
            -7.2841322422027588e-01 2.1649332344532013e-01</leafValues></_>
        <_>
          <internalNodes>
            0 -1 7 3.7258811295032501e-02</internalNodes>
          <leafValues>
            -5.2638393640518188e-01 4.2835059762001038e-01</leafValues></_>
        <_>
          <internalNodes>
            0 -1 9 2.5611924938857555e-03</internalNodes>
          <leafValues>
            2.9346790909767151e-01 -7.4949711561203003e-01</leafValues></_>
        <_>
          <internalNodes>
            0 -1 30 4.8458380624651909e-03</internalNodes>
          <leafValues>
            2.1332113444805145e-01 -8.0633449554443359e-01</leafValues></_></weakClassifiers></_>
    <!-- stage 5 -->
    <_>
      <maxWeakCount>5</maxWeakCount>
      <stageThreshold>-1.8794195652008057e+00</stageThreshold>
      <weakClassifiers>
        <_>
          <internalNodes>
            0 -1 45 6.0568723827600479e-02</internalNodes>
          <leafValues>
            -8.9765459299087524e-01 5.1219511032104492e-01</leafValues></_>
        <_>
          <internalNodes>
            0 -1 24 -6.1148278415203094e-02</internalNodes>
          <leafValues>
            3.7645792961120605e-01 -6.5403705835342407e-01</leafValues></_>
        <_>
          <internalNodes>
            0 -1 91 1.9051753915846348e-03</internalNodes>
          <leafValues>
            1.6342955827713013e-01 -8.6921012401580811e-01</leafValues></_>
        <_>
          <internalNodes>
            0 -1 8 1.1641636490821838e-02</internalNodes>
          <leafValues>
            -6.5968066453933716e-01 2.2094613313674927e-01</leafValues></_>
        <_>
          <internalNodes>
            0 -1 85 -2.6095705106854439e-03</internalNodes>
          <leafValues>
            -9.5586532354354858e-01 1.7066791653633118e-01</leafValues></_></weakClassifiers></_>
    <!-- stage 6 -->
    <_>
      <maxWeakCount>7</maxWeakCount>
      <stageThreshold>-1.8730877637863159e+00</stageThreshold>
      <weakClassifiers>
        <_>
          <internalNodes>
            0 -1 70 -3.0522115528583527e-02</internalNodes>
          <leafValues>
            6.5517240762710571e-01 -8.8421052694320679e-01</leafValues></_>
        <_>
          <internalNodes>
            0 -1 60 -7.7363014221191406e-02</internalNodes>
          <leafValues>
            8.8513970375061035e-01 -5.4299706220626831e-01</leafValues></_>
        <_>
          <internalNodes>
            0 -1 37 -9.5423236489295959e-02</internalNodes>
          <leafValues>
            -1. 1.5660141408443451e-01</leafValues></_>
        <_>
          <internalNodes>
            0 -1 51 4.6389326453208923e-02</internalNodes>
          <leafValues>
            -3.2566392421722412e-01 7.0380753278732300e-01</leafValues></_>
        <_>
          <internalNodes>
            0 -1 34 -4.0759623050689697e-02</internalNodes>
          <leafValues>
            5.9056717157363892e-01 -3.0842038989067078e-01</leafValues></_>
        <_>
          <internalNodes>
            0 -1 38 3.5721198655664921e-03</internalNodes>
          <leafValues>
            3.3950182795524597e-01 -4.6802303194999695e-01</leafValues></_>
        <_>
          <internalNodes>
            0 -1 41 -4.8804841935634613e-03</internalNodes>
          <leafValues>
            5.6075280904769897e-01 -3.0789911746978760e-01</leafValues></_></weakClassifiers></_>
    <!-- stage 7 -->
    <_>
      <maxWeakCount>7</maxWeakCount>
      <stageThreshold>-1.7617985010147095e+00</stageThreshold>
      <weakClassifiers>
        <_>
          <internalNodes>
            0 -1 61 -8.0119892954826355e-02</internalNodes>
          <leafValues>
            3.3333334326744080e-01 -8.8335102796554565e-01</leafValues></_>
        <_>
          <internalNodes>
            0 -1 48 -1.0802486911416054e-02</internalNodes>
          <leafValues>
            3.0719813704490662e-01 -6.2255060672760010e-01</leafValues></_>
        <_>
          <internalNodes>
            0 -1 87 1.6770523507148027e-03</internalNodes>
          <leafValues>
            1.0040675848722458e-01 -8.6853355169296265e-01</leafValues></_>
        <_>
          <internalNodes>
            0 -1 18 -2.5126557797193527e-02</internalNodes>
          <leafValues>
            -8.7254256010055542e-01 1.3223926723003387e-01</leafValues></_>
        <_>
          <internalNodes>
            0 -1 53 1.3863608241081238e-02</internalNodes>
          <leafValues>
            -4.1631630063056946e-01 3.5772678256034851e-01</leafValues></_>
        <_>
          <internalNodes>
            0 -1 73 -2.8890019748359919e-03</internalNodes>
          <leafValues>
            4.0468963980674744e-01 -4.1137447953224182e-01</leafValues></_>
        <_>
          <internalNodes>
            0 -1 33 3.9375242777168751e-03</internalNodes>
          <leafValues>
            -4.3489521741867065e-01 4.2728954553604126e-01</leafValues></_></weakClassifiers></_>
    <!-- stage 8 -->
    <_>
      <maxWeakCount>7</maxWeakCount>
      <stageThreshold>-1.7273685932159424e+00</stageThreshold>
      <weakClassifiers>
        <_>
          <internalNodes>
            0 -1 83 -4.1408255696296692e-02</internalNodes>
          <leafValues>
            5.6603774428367615e-02 -8.8984882831573486e-01</leafValues></_>
        <_>
          <internalNodes>
            0 -1 57 9.3499831855297089e-03</internalNodes>
          <leafValues>
            -6.0193610191345215e-01 3.3610191941261292e-01</leafValues></_>
        <_>
          <internalNodes>
            0 -1 13 -1.5869603957980871e-03</internalNodes>
          <leafValues>
            -7.5654029846191406e-01 1.4025065302848816e-01</leafValues></_>
        <_>
          <internalNodes>
            0 -1 32 1.0892643593251705e-02</internalNodes>
          <leafValues>
            1.8493485450744629e-01 -7.3450648784637451e-01</leafValues></_>
        <_>
          <internalNodes>
            0 -1 6 -1.5893310308456421e-02</internalNodes>
          <leafValues>
            -7.8971153497695923e-01 1.7338222265243530e-01</leafValues></_>
        <_>
          <internalNodes>
            0 -1 12 2.7504158206284046e-03</internalNodes>
          <leafValues>
            1.3089640438556671e-01 -9.3493258953094482e-01</leafValues></_>
        <_>
          <internalNodes>
            0 -1 19 1.1401404626667500e-03</internalNodes>
          <leafValues>
            9.8045937716960907e-02 -9.8183560371398926e-01</leafValues></_></weakClassifiers></_>
    <!-- stage 9 -->
    <_>
      <maxWeakCount>9</maxWeakCount>
      <stageThreshold>-2.0723643302917480e+00</stageThreshold>
      <weakClassifiers>
        <_>
          <internalNodes>
            0 -1 68 6.2797904014587402e-02</internalNodes>
          <leafValues>
            -8.7949258089065552e-01 3.3333334326744080e-01</leafValues></_>
        <_>
          <internalNodes>
            0 -1 47 1.8440838903188705e-02</internalNodes>
          <leafValues>
            -5.5249971151351929e-01 5.6980901956558228e-01</leafValues></_>
        <_>
          <internalNodes>
            0 -1 31 8.2340706139802933e-03</internalNodes>
          <leafValues>
            -3.4562242031097412e-01 4.7773304581642151e-01</leafValues></_>
        <_>
          <internalNodes>
            0 -1 28 3.4067938104271889e-03</internalNodes>
          <leafValues>
            -3.1830286979675293e-01 4.8599889874458313e-01</leafValues></_>
        <_>
          <internalNodes>
            0 -1 15 5.5574964731931686e-02</internalNodes>
          <leafValues>
            1.7913036048412323e-01 -9.2949324846267700e-01</leafValues></_>
        <_>
          <internalNodes>
            0 -1 29 6.4147477969527245e-03</internalNodes>
          <leafValues>
            -2.0457036793231964e-01 7.4254238605499268e-01</leafValues></_>
        <_>
          <internalNodes>
            0 -1 16 -7.5112725608050823e-04</internalNodes>
          <leafValues>
            -7.7288752794265747e-01 2.1407502889633179e-01</leafValues></_>
        <_>
          <internalNodes>
            0 -1 3 2.5437004864215851e-02</internalNodes>
          <leafValues>
            2.1847239136695862e-01 -6.1866354942321777e-01</leafValues></_>
        <_>
          <internalNodes>
            0 -1 46 3.0725756660103798e-03</internalNodes>
          <leafValues>
            -3.0726167559623718e-01 4.5358180999755859e-01</leafValues></_></weakClassifiers></_>
    <!-- stage 10 -->
    <_>
      <maxWeakCount>7</maxWeakCount>
      <stageThreshold>-1.8033868074417114e+00</stageThreshold>
      <weakClassifiers>
        <_>
          <internalNodes>
            0 -1 66 -3.5749599337577820e-02</internalNodes>
          <leafValues>
            7.5000000000000000e-01 -8.6500519514083862e-01</leafValues></_>
        <_>
          <internalNodes>
            0 -1 35 5.1490209996700287e-02</internalNodes>
          <leafValues>
            -5.8019858598709106e-01 3.5947567224502563e-01</leafValues></_>
        <_>
          <internalNodes>
            0 -1 88 -3.3240400254726410e-02</internalNodes>
          <leafValues>
            1.4971065521240234e-01 -9.4268399477005005e-01</leafValues></_>
        <_>
          <internalNodes>
            0 -1 44 -3.6204405128955841e-02</internalNodes>
          <leafValues>
            8.7785136699676514e-01 -2.0545777678489685e-01</leafValues></_>
        <_>
          <internalNodes>
            0 -1 64 -9.2728678137063980e-03</internalNodes>
          <leafValues>
            3.7327894568443298e-01 -3.6845624446868896e-01</leafValues></_>
        <_>
          <internalNodes>
            0 -1 62 6.8119158968329430e-03</internalNodes>
          <leafValues>
            -2.5553962588310242e-01 6.4189946651458740e-01</leafValues></_>
        <_>
          <internalNodes>
            0 -1 26 1.2942592147737741e-03</internalNodes>
          <leafValues>
            3.9710500836372375e-01 -4.2017516493797302e-01</leafValues></_></weakClassifiers></_>
    <!-- stage 11 -->
    <_>
      <maxWeakCount>9</maxWeakCount>
      <stageThreshold>-1.7805641889572144e+00</stageThreshold>
      <weakClassifiers>
        <_>
          <internalNodes>
            0 -1 77 -4.1138797998428345e-02</internalNodes>
          <leafValues>
            2.8000000119209290e-01 -8.6792451143264771e-01</leafValues></_>
        <_>
          <internalNodes>
            0 -1 81 1.8797289812937379e-03</internalNodes>
          <leafValues>
            -5.5138421058654785e-01 3.5193797945976257e-01</leafValues></_>
        <_>
          <internalNodes>
            0 -1 0 1.5102699398994446e-02</internalNodes>
          <leafValues>
            -4.7548243403434753e-01 3.5739943385124207e-01</leafValues></_>
        <_>
          <internalNodes>
            0 -1 20 2.9274139553308487e-02</internalNodes>
          <leafValues>
            1.9230690598487854e-01 -7.3047810792922974e-01</leafValues></_>
        <_>
          <internalNodes>
            0 -1 42 1.4211308211088181e-02</internalNodes>
          <leafValues>
            -5.3496778011322021e-01 2.8515475988388062e-01</leafValues></_>
        <_>
          <internalNodes>
            0 -1 49 -5.8610633015632629e-02</internalNodes>
          <leafValues>
            8.9131659269332886e-01 -2.2287617623806000e-01</leafValues></_>
        <_>
          <internalNodes>
            0 -1 11 2.8754184022545815e-03</internalNodes>
          <leafValues>
            2.7729022502899170e-01 -7.1294158697128296e-01</leafValues></_>
        <_>
          <internalNodes>
            0 -1 23 2.7784722624346614e-04</internalNodes>
          <leafValues>
            2.0812791585922241e-01 -6.3224148750305176e-01</leafValues></_>
        <_>
          <internalNodes>
            0 -1 54 -1.4960502088069916e-01</internalNodes>
          <leafValues>
            2.9700833559036255e-01 -4.9069353938102722e-01</leafValues></_></weakClassifiers></_>
    <!-- stage 12 -->
    <_>
      <maxWeakCount>7</maxWeakCount>
      <stageThreshold>-1.7217757701873779e+00</stageThreshold>
      <weakClassifiers>
        <_>
          <internalNodes>
            0 -1 67 4.6776853501796722e-02</internalNodes>
          <leafValues>
            -8.6444211006164551e-01 4.0000000596046448e-01</leafValues></_>
        <_>
          <internalNodes>
            0 -1 78 -4.7563411295413971e-02</internalNodes>
          <leafValues>
            2.9105037450790405e-01 -5.7443469762802124e-01</leafValues></_>
        <_>
          <internalNodes>
            0 -1 90 -8.7479117792099714e-04</internalNodes>
          <leafValues>
            -6.6366529464721680e-01 1.4133153855800629e-01</leafValues></_>
        <_>
          <internalNodes>
            0 -1 52 -2.1766410209238529e-03</internalNodes>
          <leafValues>
            -5.8011353015899658e-01 2.1668471395969391e-01</leafValues></_>
        <_>
          <internalNodes>
            0 -1 21 -2.6210611686110497e-03</internalNodes>
          <leafValues>
            5.0827783346176147e-01 -2.5746423006057739e-01</leafValues></_>
        <_>
          <internalNodes>
            0 -1 84 4.4571729376912117e-03</internalNodes>
          <leafValues>
            1.8099260330200195e-01 -7.9599928855895996e-01</leafValues></_>
        <_>
          <internalNodes>
            0 -1 39 2.7416436932981014e-03</internalNodes>
          <leafValues>
            -3.7446451187133789e-01 4.4360435009002686e-01</leafValues></_></weakClassifiers></_>
    <!-- stage 13 -->
    <_>
      <maxWeakCount>7</maxWeakCount>
      <stageThreshold>-1.6484719514846802e+00</stageThreshold>
      <weakClassifiers>
        <_>
          <internalNodes>
            0 -1 74 -1.8378660082817078e-02</internalNodes>
          <leafValues>
            5.7142859697341919e-01 -8.5906738042831421e-01</leafValues></_>
        <_>
          <internalNodes>
            0 -1 80 -1.9114227965474129e-02</internalNodes>
          <leafValues>
            4.5368802547454834e-01 -5.2877771854400635e-01</leafValues></_>
        <_>
          <internalNodes>
            0 -1 63 2.3712921887636185e-02</internalNodes>
          <leafValues>
            -3.7944039702415466e-01 4.7071668505668640e-01</leafValues></_>
        <_>
          <internalNodes>
            0 -1 59 -7.6628439128398895e-02</internalNodes>
          <leafValues>
            -8.7627905607223511e-01 1.6188450157642365e-01</leafValues></_>
        <_>
          <internalNodes>
            0 -1 58 -2.5880217552185059e-02</internalNodes>
          <leafValues>
            4.1798180341720581e-01 -4.3615138530731201e-01</leafValues></_>
        <_>
          <internalNodes>
            0 -1 50 2.5319509208202362e-02</internalNodes>
          <leafValues>
            -5.8668023347854614e-01 2.3651251196861267e-01</leafValues></_>
        <_>
          <internalNodes>
            0 -1 89 1.2400678824633360e-03</internalNodes>
          <leafValues>
            1.8903329968452454e-01 -8.5683834552764893e-01</leafValues></_></weakClassifiers></_></stages>
  <features>
    <_>
      <rects>
        <_>
          0 0 14 16 -1.</_>
        <_>
          7 0 7 16 2.</_></rects>
      <tilted>0</tilted></_>
    <_>
      <rects>
        <_>
          0 0 24 10 -1.</_>
        <_>
          8 0 8 10 2.</_></rects>
      <tilted>0</tilted></_>
    <_>
      <rects>
        <_>
          0 1 3 15 -1.</_>
        <_>
          1 1 1 15 2.</_></rects>
      <tilted>0</tilted></_>
    <_>
      <rects>
        <_>
          0 3 19 12 -1.</_>
        <_>
          0 9 19 6 2.</_></rects>
      <tilted>0</tilted></_>
    <_>
      <rects>
        <_>
          0 4 16 3 -1.</_>
        <_>
          8 4 8 3 2.</_></rects>
      <tilted>0</tilted></_>
    <_>
      <rects>
        <_>
          0 5 16 3 -1.</_>
        <_>
          8 5 8 3 2.</_></rects>
      <tilted>0</tilted></_>
    <_>
      <rects>
        <_>
          0 5 10 14 -1.</_>
        <_>
          0 12 10 7 2.</_></rects>
      <tilted>0</tilted></_>
    <_>
      <rects>
        <_>
          0 6 16 4 -1.</_>
        <_>
          8 6 8 4 2.</_></rects>
      <tilted>0</tilted></_>
    <_>
      <rects>
        <_>
          0 9 20 10 -1.</_>
        <_>
          0 14 20 5 2.</_></rects>
      <tilted>0</tilted></_>
    <_>
      <rects>
        <_>
          0 14 2 10 -1.</_>
        <_>
          0 19 2 5 2.</_></rects>
      <tilted>0</tilted></_>
    <_>
      <rects>
        <_>
          0 18 20 5 -1.</_>
        <_>
          10 18 10 5 2.</_></rects>
      <tilted>0</tilted></_>
    <_>
      <rects>
        <_>
          1 0 4 3 -1.</_>
        <_>
          3 0 2 3 2.</_></rects>
      <tilted>0</tilted></_>
    <_>
      <rects>
        <_>
          1 0 6 2 -1.</_>
        <_>
          1 0 3 1 2.</_>
        <_>
          4 1 3 1 2.</_></rects>
      <tilted>0</tilted></_>
    <_>
      <rects>
        <_>
          1 11 2 10 -1.</_>
        <_>
          1 16 2 5 2.</_></rects>
      <tilted>0</tilted></_>
    <_>
      <rects>
        <_>
          1 12 1 12 -1.</_>
        <_>
          1 18 1 6 2.</_></rects>
      <tilted>0</tilted></_>
    <_>
      <rects>
        <_>
          1 15 22 9 -1.</_>
        <_>
          12 15 11 9 2.</_></rects>
      <tilted>0</tilted></_>
    <_>
      <rects>
        <_>
          2 1 2 2 -1.</_>
        <_>
          3 1 1 2 2.</_></rects>
      <tilted>0</tilted></_>
    <_>
      <rects>
        <_>
          2 1 18 1 -1.</_>
        <_>
          8 1 6 1 2.</_></rects>
      <tilted>0</tilted></_>
    <_>
      <rects>
        <_>
          2 17 22 4 -1.</_>
        <_>
          13 17 11 4 2.</_></rects>
      <tilted>0</tilted></_>
    <_>
      <rects>
        <_>
          3 0 1 2 -1.</_>
        <_>
          3 1 1 1 2.</_></rects>
      <tilted>0</tilted></_>
    <_>
      <rects>
        <_>
          3 4 21 10 -1.</_>
        <_>
          3 9 21 5 2.</_></rects>
      <tilted>0</tilted></_>
    <_>
      <rects>
        <_>
          3 12 8 2 -1.</_>
        <_>
          3 13 8 1 2.</_></rects>
      <tilted>0</tilted></_>
    <_>
      <rects>
        <_>
          3 14 1 10 -1.</_>
        <_>
          3 19 1 5 2.</_></rects>
      <tilted>0</tilted></_>
    <_>
      <rects>
        <_>
          3 22 2 2 -1.</_>
        <_>
          4 22 1 2 2.</_></rects>
      <tilted>0</tilted></_>
    <_>
      <rects>
        <_>
          4 5 10 8 -1.</_>
        <_>
          4 5 5 4 2.</_>
        <_>
          9 9 5 4 2.</_></rects>
      <tilted>0</tilted></_>
    <_>
      <rects>
        <_>
          4 15 19 8 -1.</_>
        <_>
          4 19 19 4 2.</_></rects>
      <tilted>0</tilted></_>
    <_>
      <rects>
        <_>
          5 1 6 9 -1.</_>
        <_>
          8 1 3 9 2.</_></rects>
      <tilted>0</tilted></_>
    <_>
      <rects>
        <_>
          5 4 10 4 -1.</_>
        <_>
          10 4 5 4 2.</_></rects>
      <tilted>0</tilted></_>
    <_>
      <rects>
        <_>
          5 9 4 4 -1.</_>
        <_>
          7 9 2 4 2.</_></rects>
      <tilted>0</tilted></_>
    <_>
      <rects>
        <_>
          5 11 6 2 -1.</_>
        <_>
          5 11 3 1 2.</_>
        <_>
          8 12 3 1 2.</_></rects>
      <tilted>0</tilted></_>
    <_>
      <rects>
        <_>
          5 18 12 6 -1.</_>
        <_>
          5 18 6 3 2.</_>
        <_>
          11 21 6 3 2.</_></rects>
      <tilted>0</tilted></_>
    <_>
      <rects>
        <_>
          6 4 8 2 -1.</_>
        <_>
          6 5 8 1 2.</_></rects>
      <tilted>0</tilted></_>
    <_>
      <rects>
        <_>
          6 5 11 12 -1.</_>
        <_>
          6 11 11 6 2.</_></rects>
      <tilted>0</tilted></_>
    <_>
      <rects>
        <_>
          6 10 11 4 -1.</_>
        <_>
          6 12 11 2 2.</_></rects>
      <tilted>0</tilted></_>
    <_>
      <rects>
        <_>
          7 3 7 14 -1.</_>
        <_>
          7 10 7 7 2.</_></rects>
      <tilted>0</tilted></_>
    <_>
      <rects>
        <_>
          7 3 17 4 -1.</_>
        <_>
          7 5 17 2 2.</_></rects>
      <tilted>0</tilted></_>
    <_>
      <rects>
        <_>
          7 4 10 4 -1.</_>
        <_>
          12 4 5 4 2.</_></rects>
      <tilted>0</tilted></_>
    <_>
      <rects>
        <_>
          7 4 12 16 -1.</_>
        <_>
          7 12 12 8 2.</_></rects>
      <tilted>0</tilted></_>
    <_>
      <rects>
        <_>
          7 16 11 6 -1.</_>
        <_>
          7 19 11 3 2.</_></rects>
      <tilted>0</tilted></_>
    <_>
      <rects>
        <_>
          7 20 17 2 -1.</_>
        <_>
          7 21 17 1 2.</_></rects>
      <tilted>0</tilted></_>
    <_>
      <rects>
        <_>
          8 1 8 6 -1.</_>
        <_>
          8 4 8 3 2.</_></rects>
      <tilted>0</tilted></_>
    <_>
      <rects>
        <_>
          8 1 9 2 -1.</_>
        <_>
          8 2 9 1 2.</_></rects>
      <tilted>0</tilted></_>
    <_>
      <rects>
        <_>
          8 1 15 22 -1.</_>
        <_>
          8 12 15 11 2.</_></rects>
      <tilted>0</tilted></_>
    <_>
      <rects>
        <_>
          8 4 10 4 -1.</_>
        <_>
          13 4 5 4 2.</_></rects>
      <tilted>0</tilted></_>
    <_>
      <rects>
        <_>
          8 5 10 2 -1.</_>
        <_>
          13 5 5 2 2.</_></rects>
      <tilted>0</tilted></_>
    <_>
      <rects>
        <_>
          8 5 10 3 -1.</_>
        <_>
          13 5 5 3 2.</_></rects>
      <tilted>0</tilted></_>
    <_>
      <rects>
        <_>
          8 7 1 6 -1.</_>
        <_>
          8 10 1 3 2.</_></rects>
      <tilted>0</tilted></_>
    <_>
      <rects>
        <_>
          8 8 4 8 -1.</_>
        <_>
          8 8 2 4 2.</_>
        <_>
          10 12 2 4 2.</_></rects>
      <tilted>0</tilted></_>
    <_>
      <rects>
        <_>
          8 9 10 2 -1.</_>
        <_>
          8 10 10 1 2.</_></rects>
      <tilted>0</tilted></_>
    <_>
      <rects>
        <_>
          9 0 9 6 -1.</_>
        <_>
          9 3 9 3 2.</_></rects>
      <tilted>0</tilted></_>
    <_>
      <rects>
        <_>
          9 0 13 24 -1.</_>
        <_>
          9 12 13 12 2.</_></rects>
      <tilted>0</tilted></_>
    <_>
      <rects>
        <_>
          9 4 8 4 -1.</_>
        <_>
          13 4 4 4 2.</_></rects>
      <tilted>0</tilted></_>
    <_>
      <rects>
        <_>
          9 21 8 3 -1.</_>
        <_>
          13 21 4 3 2.</_></rects>
      <tilted>0</tilted></_>
    <_>
      <rects>
        <_>
          10 3 6 4 -1.</_>
        <_>
          10 5 6 2 2.</_></rects>
      <tilted>0</tilted></_>
    <_>
      <rects>
        <_>
          10 6 4 9 -1.</_>
        <_>
          10 9 4 3 2.</_></rects>
      <tilted>0</tilted></_>
    <_>
      <rects>
        <_>
          10 10 11 8 -1.</_>
        <_>
          10 14 11 4 2.</_></rects>
      <tilted>0</tilted></_>
    <_>
      <rects>
        <_>
          11 1 3 12 -1.</_>
        <_>
          11 5 3 4 2.</_></rects>
      <tilted>0</tilted></_>
    <_>
      <rects>
        <_>
          11 3 2 10 -1.</_>
        <_>
          12 3 1 10 2.</_></rects>
      <tilted>0</tilted></_>
    <_>
      <rects>
        <_>
          11 4 7 18 -1.</_>
        <_>
          11 13 7 9 2.</_></rects>
      <tilted>0</tilted></_>
    <_>
      <rects>
        <_>
          11 4 8 16 -1.</_>
        <_>
          11 12 8 8 2.</_></rects>
      <tilted>0</tilted></_>
    <_>
      <rects>
        <_>
          11 5 8 5 -1.</_>
        <_>
          15 5 4 5 2.</_></rects>
      <tilted>0</tilted></_>
    <_>
      <rects>
        <_>
          11 6 7 6 -1.</_>
        <_>
          11 9 7 3 2.</_></rects>
      <tilted>0</tilted></_>
    <_>
      <rects>
        <_>
          11 13 9 2 -1.</_>
        <_>
          11 14 9 1 2.</_></rects>
      <tilted>0</tilted></_>
    <_>
      <rects>
        <_>
          12 5 6 14 -1.</_>
        <_>
          12 5 3 7 2.</_>
        <_>
          15 12 3 7 2.</_></rects>
      <tilted>0</tilted></_>
    <_>
      <rects>
        <_>
          12 6 6 18 -1.</_>
        <_>
          12 15 6 9 2.</_></rects>
      <tilted>0</tilted></_>
    <_>
      <rects>
        <_>
          12 9 6 7 -1.</_>
        <_>
          15 9 3 7 2.</_></rects>
      <tilted>0</tilted></_>
    <_>
      <rects>
        <_>
          12 12 6 3 -1.</_>
        <_>
          15 12 3 3 2.</_></rects>
      <tilted>0</tilted></_>
    <_>
      <rects>
        <_>
          12 12 6 8 -1.</_>
        <_>
          12 12 3 4 2.</_>
        <_>
          15 16 3 4 2.</_></rects>
      <tilted>0</tilted></_>
    <_>
      <rects>
        <_>
          13 2 4 6 -1.</_>
        <_>
          13 5 4 3 2.</_></rects>
      <tilted>0</tilted></_>
    <_>
      <rects>
        <_>
          13 5 8 5 -1.</_>
        <_>
          17 5 4 5 2.</_></rects>
      <tilted>0</tilted></_>
    <_>
      <rects>
        <_>
          13 6 10 1 -1.</_>
        <_>
          18 6 5 1 2.</_></rects>
      <tilted>0</tilted></_>
    <_>
      <rects>
        <_>
          14 2 10 7 -1.</_>
        <_>
          19 2 5 7 2.</_></rects>
      <tilted>0</tilted></_>
    <_>
      <rects>
        <_>
          14 5 10 2 -1.</_>
        <_>
          19 5 5 2 2.</_></rects>
      <tilted>0</tilted></_>
    <_>
      <rects>
        <_>
          14 9 2 6 -1.</_>
        <_>
          14 12 2 3 2.</_></rects>
      <tilted>0</tilted></_>
    <_>
      <rects>
        <_>
          14 12 4 2 -1.</_>
        <_>
          16 12 2 2 2.</_></rects>
      <tilted>0</tilted></_>
    <_>
      <rects>
        <_>
          14 15 7 8 -1.</_>
        <_>
          14 19 7 4 2.</_></rects>
      <tilted>0</tilted></_>
    <_>
      <rects>
        <_>
          15 0 2 6 -1.</_>
        <_>
          15 3 2 3 2.</_></rects>
      <tilted>0</tilted></_>
    <_>
      <rects>
        <_>
          15 6 6 2 -1.</_>
        <_>
          18 6 3 2 2.</_></rects>
      <tilted>0</tilted></_>
    <_>
      <rects>
        <_>
          15 6 6 14 -1.</_>
        <_>
          18 6 3 14 2.</_></rects>
      <tilted>0</tilted></_>
    <_>
      <rects>
        <_>
          15 12 2 8 -1.</_>
        <_>
          15 16 2 4 2.</_></rects>
      <tilted>0</tilted></_>
    <_>
      <rects>
        <_>
          15 12 4 8 -1.</_>
        <_>
          15 12 2 4 2.</_>
        <_>
          17 16 2 4 2.</_></rects>
      <tilted>0</tilted></_>
    <_>
      <rects>
        <_>
          15 13 2 1 -1.</_>
        <_>
          16 13 1 1 2.</_></rects>
      <tilted>0</tilted></_>
    <_>
      <rects>
        <_>
          16 2 1 6 -1.</_>
        <_>
          16 5 1 3 2.</_></rects>
      <tilted>0</tilted></_>
    <_>
      <rects>
        <_>
          16 4 6 4 -1.</_>
        <_>
          19 4 3 4 2.</_></rects>
      <tilted>0</tilted></_>
    <_>
      <rects>
        <_>
          17 18 4 6 -1.</_>
        <_>
          17 21 4 3 2.</_></rects>
      <tilted>0</tilted></_>
    <_>
      <rects>
        <_>
          20 18 1 6 -1.</_>
        <_>
          20 21 1 3 2.</_></rects>
      <tilted>0</tilted></_>
    <_>
      <rects>
        <_>
          20 18 4 6 -1.</_>
        <_>
          20 21 4 3 2.</_></rects>
      <tilted>0</tilted></_>
    <_>
      <rects>
        <_>
          21 3 1 4 -1.</_>
        <_>
          21 5 1 2 2.</_></rects>
      <tilted>0</tilted></_>
    <_>
      <rects>
        <_>
          21 10 1 12 -1.</_>
        <_>
          21 14 1 4 2.</_></rects>
      <tilted>0</tilted></_>
    <_>
      <rects>
        <_>
          22 1 2 2 -1.</_>
        <_>
          23 1 1 2 2.</_></rects>
      <tilted>0</tilted></_>
    <_>
      <rects>
        <_>
          22 1 2 4 -1.</_>
        <_>
          23 1 1 4 2.</_></rects>
      <tilted>0</tilted></_>
    <_>
      <rects>
        <_>
          22 15 1 6 -1.</_>
        <_>
          22 18 1 3 2.</_></rects>
      <tilted>0</tilted></_></features></cascade>
</opencv_storage>
