<?xml version="1.0"?>
<opencv_storage>
<stage10>
  <maxWeakCount>7</maxWeakCount>
  <stageThreshold>-1.8033868074417114e+00</stageThreshold>
  <weakClassifiers>
    <_>
      <internalNodes>
        0 -1 126438 -3.5749599337577820e-02</internalNodes>
      <leafValues>
        7.5000000000000000e-01 -8.6500519514083862e-01</leafValues></_>
    <_>
      <internalNodes>
        0 -1 83508 5.1490209996700287e-02</internalNodes>
      <leafValues>
        -5.8019858598709106e-01 3.5947567224502563e-01</leafValues></_>
    <_>
      <internalNodes>
        0 -1 160706 -3.3240400254726410e-02</internalNodes>
      <leafValues>
        1.4971065521240234e-01 -9.4268399477005005e-01</leafValues></_>
    <_>
      <internalNodes>
        0 -1 93363 -3.6204405128955841e-02</internalNodes>
      <leafValues>
        8.7785136699676514e-01 -2.0545777678489685e-01</leafValues></_>
    <_>
      <internalNodes>
        0 -1 124573 -9.2728678137063980e-03</internalNodes>
      <leafValues>
        3.7327894568443298e-01 -3.6845624446868896e-01</leafValues></_>
    <_>
      <internalNodes>
        0 -1 120084 6.8119158968329430e-03</internalNodes>
      <leafValues>
        -2.5553962588310242e-01 6.4189946651458740e-01</leafValues></_>
    <_>
      <internalNodes>
        0 -1 61473 1.2942592147737741e-03</internalNodes>
      <leafValues>
        3.9710500836372375e-01 -4.2017516493797302e-01</leafValues></_></weakClassifiers></stage10>
</opencv_storage>
