<?xml version="1.0"?>
<opencv_storage>
<stage0>
  <maxWeakCount>5</maxWeakCount>
  <stageThreshold>-1.4169229269027710e+00</stageThreshold>
  <weakClassifiers>
    <_>
      <internalNodes>
        0 -1 130371 -5.9995450079441071e-02</internalNodes>
      <leafValues>
        8.9473682641983032e-01 -9.0860784053802490e-01</leafValues></_>
    <_>
      <internalNodes>
        0 -1 91040 4.9696028232574463e-02</internalNodes>
      <leafValues>
        -7.2135102748870850e-01 5.3452146053314209e-01</leafValues></_>
    <_>
      <internalNodes>
        0 -1 125539 1.5308139845728874e-02</internalNodes>
      <leafValues>
        -5.9553927183151245e-01 6.1099541187286377e-01</leafValues></_>
    <_>
      <internalNodes>
        0 -1 1162 -1.2421326339244843e-01</internalNodes>
      <leafValues>
        2.8595796227455139e-01 -9.5008838176727295e-01</leafValues></_>
    <_>
      <internalNodes>
        0 -1 142880 7.4579799547791481e-03</internalNodes>
      <leafValues>
        -5.2877849340438843e-01 5.2261728048324585e-01</leafValues></_></weakClassifiers></stage0>
</opencv_storage>
