<?xml version="1.0"?>
<opencv_storage>
<cascade>
  <stageType>BOOST</stageType>
  <featureType>HAAR</featureType>
  <height>24</height>
  <width>24</width>
  <stageParams>
    <boostType>GAB</boostType>
    <minHitRate>9.9900001287460327e-01</minHitRate>
    <maxFalseAlarm>4.0000000596046448e-01</maxFalseAlarm>
    <weightTrimRate>9.4999999999999996e-01</weightTrimRate>
    <maxDepth>1</maxDepth>
    <maxWeakCount>100</maxWeakCount></stageParams>
  <featureParams>
    <maxCatCount>0</maxCatCount>
    <featSize>1</featSize>
    <mode>BASIC</mode></featureParams>
  <stageNum>12</stageNum>
  <stages>
    <!-- stage 0 -->
    <_>
      <maxWeakCount>6</maxWeakCount>
      <stageThreshold>-1.6776300668716431e+00</stageThreshold>
      <weakClassifiers>
        <_>
          <internalNodes>
            0 -1 89 -6.7020803689956665e-02</internalNodes>
          <leafValues>
            8.6021506786346436e-01 -8.7642586231231689e-01</leafValues></_>
        <_>
          <internalNodes>
            0 -1 8 4.5774415135383606e-02</internalNodes>
          <leafValues>
            -6.7190068960189819e-01 6.1047941446304321e-01</leafValues></_>
        <_>
          <internalNodes>
            0 -1 98 1.8523449078202248e-02</internalNodes>
          <leafValues>
            -4.9249649047851563e-01 6.0395610332489014e-01</leafValues></_>
        <_>
          <internalNodes>
            0 -1 32 -1.6321979463100433e-01</internalNodes>
          <leafValues>
            2.2649446129798889e-01 -9.4397115707397461e-01</leafValues></_>
        <_>
          <internalNodes>
            0 -1 64 1.9231084734201431e-02</internalNodes>
          <leafValues>
            -4.0296435356140137e-01 5.5683624744415283e-01</leafValues></_>
        <_>
          <internalNodes>
            0 -1 86 2.9663901776075363e-02</internalNodes>
          <leafValues>
            -4.2013764381408691e-01 7.7637666463851929e-01</leafValues></_></weakClassifiers></_>
    <!-- stage 1 -->
    <_>
      <maxWeakCount>5</maxWeakCount>
      <stageThreshold>-1.5786757469177246e+00</stageThreshold>
      <weakClassifiers>
        <_>
          <internalNodes>
            0 -1 90 -5.0684243440628052e-02</internalNodes>
          <leafValues>
            7.8378379344940186e-01 -8.6134850978851318e-01</leafValues></_>
        <_>
          <internalNodes>
            0 -1 33 -8.8085305690765381e-01</internalNodes>
          <leafValues>
            -8.8081264495849609e-01 3.0097839236259460e-01</leafValues></_>
        <_>
          <internalNodes>
            0 -1 60 -2.5587137788534164e-02</internalNodes>
          <leafValues>
            4.6039354801177979e-01 -5.9465694427490234e-01</leafValues></_>
        <_>
          <internalNodes>
            0 -1 106 1.0183848440647125e-02</internalNodes>
          <leafValues>
            -4.2183396220207214e-01 5.5519789457321167e-01</leafValues></_>
        <_>
          <internalNodes>
            0 -1 107 -1.6173619776964188e-02</internalNodes>
          <leafValues>
            -9.6202087402343750e-01 2.0294441282749176e-01</leafValues></_></weakClassifiers></_>
    <!-- stage 2 -->
    <_>
      <maxWeakCount>8</maxWeakCount>
      <stageThreshold>-1.4521679878234863e+00</stageThreshold>
      <weakClassifiers>
        <_>
          <internalNodes>
            0 -1 90 -5.5928327143192291e-02</internalNodes>
          <leafValues>
            5.0239235162734985e-01 -8.4256559610366821e-01</leafValues></_>
        <_>
          <internalNodes>
            0 -1 40 -2.0870915055274963e-01</internalNodes>
          <leafValues>
            -7.9618400335311890e-01 1.9437168538570404e-01</leafValues></_>
        <_>
          <internalNodes>
            0 -1 13 2.8597896918654442e-02</internalNodes>
          <leafValues>
            -6.2109488248825073e-01 3.0353760719299316e-01</leafValues></_>
        <_>
          <internalNodes>
            0 -1 49 -6.4195329323410988e-03</internalNodes>
          <leafValues>
            2.2368825972080231e-01 -7.9955846071243286e-01</leafValues></_>
        <_>
          <internalNodes>
            0 -1 123 4.2665060609579086e-03</internalNodes>
          <leafValues>
            2.0938640832901001e-01 -9.6801429986953735e-01</leafValues></_>
        <_>
          <internalNodes>
            0 -1 27 -1.8144732713699341e-01</internalNodes>
          <leafValues>
            1.5902872383594513e-01 -9.1814774274826050e-01</leafValues></_>
        <_>
          <internalNodes>
            0 -1 63 -6.7137521691620350e-03</internalNodes>
          <leafValues>
            -7.9414647817611694e-01 1.4765875041484833e-01</leafValues></_>
        <_>
          <internalNodes>
            0 -1 108 8.4368474781513214e-03</internalNodes>
          <leafValues>
            1.5453509986400604e-01 -8.8322430849075317e-01</leafValues></_></weakClassifiers></_>
    <!-- stage 3 -->
    <_>
      <maxWeakCount>9</maxWeakCount>
      <stageThreshold>-1.6551809310913086e+00</stageThreshold>
      <weakClassifiers>
        <_>
          <internalNodes>
            0 -1 95 -5.7801045477390289e-02</internalNodes>
          <leafValues>
            7.4814814329147339e-01 -7.8241157531738281e-01</leafValues></_>
        <_>
          <internalNodes>
            0 -1 76 6.6108107566833496e-02</internalNodes>
          <leafValues>
            -5.5786621570587158e-01 4.7503036260604858e-01</leafValues></_>
        <_>
          <internalNodes>
            0 -1 12 1.2324855662882328e-02</internalNodes>
          <leafValues>
            -7.0084810256958008e-01 3.0055320262908936e-01</leafValues></_>
        <_>
          <internalNodes>
            0 -1 65 -7.4987590312957764e-02</internalNodes>
          <leafValues>
            8.4195810556411743e-01 -2.2872456908226013e-01</leafValues></_>
        <_>
          <internalNodes>
            0 -1 52 -1.2517141178250313e-02</internalNodes>
          <leafValues>
            -9.5213913917541504e-01 1.9308881461620331e-01</leafValues></_>
        <_>
          <internalNodes>
            0 -1 112 -2.2344015538692474e-02</internalNodes>
          <leafValues>
            1.4613483846187592e-01 -9.4730663299560547e-01</leafValues></_>
        <_>
          <internalNodes>
            0 -1 48 5.8895416557788849e-02</internalNodes>
          <leafValues>
            -2.9626294970512390e-01 5.8948189020156860e-01</leafValues></_>
        <_>
          <internalNodes>
            0 -1 19 6.7721344530582428e-03</internalNodes>
          <leafValues>
            2.3093359172344208e-01 -7.9564511775970459e-01</leafValues></_>
        <_>
          <internalNodes>
            0 -1 57 -9.2050507664680481e-03</internalNodes>
          <leafValues>
            4.8160907626152039e-01 -3.6879685521125793e-01</leafValues></_></weakClassifiers></_>
    <!-- stage 4 -->
    <_>
      <maxWeakCount>9</maxWeakCount>
      <stageThreshold>-1.3969522714614868e+00</stageThreshold>
      <weakClassifiers>
        <_>
          <internalNodes>
            0 -1 94 9.6359163522720337e-02</internalNodes>
          <leafValues>
            -7.9830348491668701e-01 4.8022598028182983e-01</leafValues></_>
        <_>
          <internalNodes>
            0 -1 9 -7.9272054135799408e-02</internalNodes>
          <leafValues>
            3.1696221232414246e-01 -5.8109694719314575e-01</leafValues></_>
        <_>
          <internalNodes>
            0 -1 77 -1.8916323781013489e-02</internalNodes>
          <leafValues>
            -6.4606612920761108e-01 2.3785616457462311e-01</leafValues></_>
        <_>
          <internalNodes>
            0 -1 36 1.9220823422074318e-02</internalNodes>
          <leafValues>
            1.3770541548728943e-01 -9.4880539178848267e-01</leafValues></_>
        <_>
          <internalNodes>
            0 -1 28 7.9029358923435211e-02</internalNodes>
          <leafValues>
            1.3637833297252655e-01 -9.2957401275634766e-01</leafValues></_>
        <_>
          <internalNodes>
            0 -1 39 2.5339959189295769e-02</internalNodes>
          <leafValues>
            1.3890177011489868e-01 -7.5291836261749268e-01</leafValues></_>
        <_>
          <internalNodes>
            0 -1 31 -4.0898378938436508e-02</internalNodes>
          <leafValues>
            -7.6653850078582764e-01 1.5581537783145905e-01</leafValues></_>
        <_>
          <internalNodes>
            0 -1 103 -1.2776333605870605e-03</internalNodes>
          <leafValues>
            4.3530082702636719e-01 -3.1986501812934875e-01</leafValues></_>
        <_>
          <internalNodes>
            0 -1 115 1.0598472319543362e-02</internalNodes>
          <leafValues>
            -2.4731013178825378e-01 5.1623266935348511e-01</leafValues></_></weakClassifiers></_>
    <!-- stage 5 -->
    <_>
      <maxWeakCount>14</maxWeakCount>
      <stageThreshold>-1.5937933921813965e+00</stageThreshold>
      <weakClassifiers>
        <_>
          <internalNodes>
            0 -1 74 -2.4164963513612747e-02</internalNodes>
          <leafValues>
            5.6834530830383301e-01 -7.6524114608764648e-01</leafValues></_>
        <_>
          <internalNodes>
            0 -1 101 -6.3502207398414612e-02</internalNodes>
          <leafValues>
            6.1065560579299927e-01 -4.4316661357879639e-01</leafValues></_>
        <_>
          <internalNodes>
            0 -1 5 2.0803928375244141e-02</internalNodes>
          <leafValues>
            -6.2895274162292480e-01 3.2383498549461365e-01</leafValues></_>
        <_>
          <internalNodes>
            0 -1 68 -7.6261453330516815e-02</internalNodes>
          <leafValues>
            8.9974749088287354e-01 -2.0775981247425079e-01</leafValues></_>
        <_>
          <internalNodes>
            0 -1 18 -1.1331379413604736e-02</internalNodes>
          <leafValues>
            -7.0009809732437134e-01 2.3165832459926605e-01</leafValues></_>
        <_>
          <internalNodes>
            0 -1 29 -4.7858357429504395e-02</internalNodes>
          <leafValues>
            -7.6724272966384888e-01 1.8208414316177368e-01</leafValues></_>
        <_>
          <internalNodes>
            0 -1 81 1.0442344471812248e-02</internalNodes>
          <leafValues>
            -2.0681007206439972e-01 6.9443219900131226e-01</leafValues></_>
        <_>
          <internalNodes>
            0 -1 11 -1.7558496445417404e-02</internalNodes>
          <leafValues>
            4.3234539031982422e-01 -3.0178442597389221e-01</leafValues></_>
        <_>
          <internalNodes>
            0 -1 17 2.7053649537265301e-03</internalNodes>
          <leafValues>
            1.7702749371528625e-01 -7.9564911127090454e-01</leafValues></_>
        <_>
          <internalNodes>
            0 -1 4 -1.8871650099754333e-02</internalNodes>
          <leafValues>
            -8.7554579973220825e-01 1.1690028756856918e-01</leafValues></_>
        <_>
          <internalNodes>
            0 -1 34 1.9791275262832642e-03</internalNodes>
          <leafValues>
            1.3330535590648651e-01 -7.6549869775772095e-01</leafValues></_>
        <_>
          <internalNodes>
            0 -1 41 -2.1294729411602020e-01</internalNodes>
          <leafValues>
            1.4618523418903351e-01 -7.9636240005493164e-01</leafValues></_>
        <_>
          <internalNodes>
            0 -1 45 2.3001255467534065e-02</internalNodes>
          <leafValues>
            -3.2402589917182922e-01 3.9694374799728394e-01</leafValues></_>
        <_>
          <internalNodes>
            0 -1 61 8.4653822705149651e-03</internalNodes>
          <leafValues>
            -2.8631308674812317e-01 5.3533327579498291e-01</leafValues></_></weakClassifiers></_>
    <!-- stage 6 -->
    <_>
      <maxWeakCount>9</maxWeakCount>
      <stageThreshold>-1.5531209707260132e+00</stageThreshold>
      <weakClassifiers>
        <_>
          <internalNodes>
            0 -1 85 -2.7375036478042603e-01</internalNodes>
          <leafValues>
            -8.9988082647323608e-01 -1.7543859779834747e-02</leafValues></_>
        <_>
          <internalNodes>
            0 -1 84 -3.5697616636753082e-02</internalNodes>
          <leafValues>
            7.8582644462585449e-01 -4.3340554833412170e-01</leafValues></_>
        <_>
          <internalNodes>
            0 -1 35 5.1494374871253967e-02</internalNodes>
          <leafValues>
            -4.2899876832962036e-01 3.3953791856765747e-01</leafValues></_>
        <_>
          <internalNodes>
            0 -1 66 -1.1100433021783829e-01</internalNodes>
          <leafValues>
            -9.2166131734848022e-01 1.4705455303192139e-01</leafValues></_>
        <_>
          <internalNodes>
            0 -1 113 -3.5360503196716309e-01</internalNodes>
          <leafValues>
            -4.4029679894447327e-01 3.0110225081443787e-01</leafValues></_>
        <_>
          <internalNodes>
            0 -1 54 -3.8522630929946899e-01</internalNodes>
          <leafValues>
            2.4546316266059875e-01 -6.3962066173553467e-01</leafValues></_>
        <_>
          <internalNodes>
            0 -1 1 1.1208523064851761e-03</internalNodes>
          <leafValues>
            1.6215926408767700e-01 -8.1270611286163330e-01</leafValues></_>
        <_>
          <internalNodes>
            0 -1 116 -3.7073732819408178e-03</internalNodes>
          <leafValues>
            -7.7866023778915405e-01 1.3464748859405518e-01</leafValues></_>
        <_>
          <internalNodes>
            0 -1 110 -1.5517984284088016e-03</internalNodes>
          <leafValues>
            -8.8277965784072876e-01 1.0382133722305298e-01</leafValues></_></weakClassifiers></_>
    <!-- stage 7 -->
    <_>
      <maxWeakCount>13</maxWeakCount>
      <stageThreshold>-1.7740445137023926e+00</stageThreshold>
      <weakClassifiers>
        <_>
          <internalNodes>
            0 -1 80 -2.3242462426424026e-02</internalNodes>
          <leafValues>
            8.1176471710205078e-01 -7.2072851657867432e-01</leafValues></_>
        <_>
          <internalNodes>
            0 -1 87 4.1101686656475067e-02</internalNodes>
          <leafValues>
            -5.6433337926864624e-01 2.9162093997001648e-01</leafValues></_>
        <_>
          <internalNodes>
            0 -1 47 -3.7236191332340240e-02</internalNodes>
          <leafValues>
            4.1801369190216064e-01 -3.5378733277320862e-01</leafValues></_>
        <_>
          <internalNodes>
            0 -1 15 -7.3591619729995728e-03</internalNodes>
          <leafValues>
            -7.5012415647506714e-01 1.7854911088943481e-01</leafValues></_>
        <_>
          <internalNodes>
            0 -1 0 -6.5355105325579643e-03</internalNodes>
          <leafValues>
            1.6270497441291809e-01 -7.5019162893295288e-01</leafValues></_>
        <_>
          <internalNodes>
            0 -1 16 4.7232294455170631e-03</internalNodes>
          <leafValues>
            3.2095557451248169e-01 -4.6327212452888489e-01</leafValues></_>
        <_>
          <internalNodes>
            0 -1 50 1.2634042650461197e-03</internalNodes>
          <leafValues>
            -2.8587871789932251e-01 4.7821745276451111e-01</leafValues></_>
        <_>
          <internalNodes>
            0 -1 53 6.4434081315994263e-02</internalNodes>
          <leafValues>
            -1.9302029907703400e-01 6.0085088014602661e-01</leafValues></_>
        <_>
          <internalNodes>
            0 -1 82 -1.2220049276947975e-02</internalNodes>
          <leafValues>
            8.2156836986541748e-01 -1.4938770234584808e-01</leafValues></_>
        <_>
          <internalNodes>
            0 -1 67 -4.0758703835308552e-03</internalNodes>
          <leafValues>
            5.9853565692901611e-01 -1.6857339441776276e-01</leafValues></_>
        <_>
          <internalNodes>
            0 -1 78 1.2704167515039444e-02</internalNodes>
          <leafValues>
            1.8971863389015198e-01 -6.4081841707229614e-01</leafValues></_>
        <_>
          <internalNodes>
            0 -1 69 -1.0879345983266830e-01</internalNodes>
          <leafValues>
            -7.3396956920623779e-01 1.6125373542308807e-01</leafValues></_>
        <_>
          <internalNodes>
            0 -1 79 -9.2131309211254120e-03</internalNodes>
          <leafValues>
            5.3871071338653564e-01 -2.6795759797096252e-01</leafValues></_></weakClassifiers></_>
    <!-- stage 8 -->
    <_>
      <maxWeakCount>12</maxWeakCount>
      <stageThreshold>-1.4740406274795532e+00</stageThreshold>
      <weakClassifiers>
        <_>
          <internalNodes>
            0 -1 71 3.1404867768287659e-02</internalNodes>
          <leafValues>
            -7.1777004003524780e-01 6.8888890743255615e-01</leafValues></_>
        <_>
          <internalNodes>
            0 -1 91 -3.1862355768680573e-02</internalNodes>
          <leafValues>
            3.7017494440078735e-01 -4.6409556269645691e-01</leafValues></_>
        <_>
          <internalNodes>
            0 -1 2 1.7705302452668548e-03</internalNodes>
          <leafValues>
            -5.0298416614532471e-01 2.9235839843750000e-01</leafValues></_>
        <_>
          <internalNodes>
            0 -1 122 1.5442592557519674e-03</internalNodes>
          <leafValues>
            1.4685067534446716e-01 -8.3684343099594116e-01</leafValues></_>
        <_>
          <internalNodes>
            0 -1 72 2.6687744539231062e-03</internalNodes>
          <leafValues>
            -1.8429133296012878e-01 6.6824024915695190e-01</leafValues></_>
        <_>
          <internalNodes>
            0 -1 119 -1.8459821585565805e-03</internalNodes>
          <leafValues>
            -7.8119891881942749e-01 1.6089075803756714e-01</leafValues></_>
        <_>
          <internalNodes>
            0 -1 21 1.5129907988011837e-03</internalNodes>
          <leafValues>
            9.8228931427001953e-02 -8.6919283866882324e-01</leafValues></_>
        <_>
          <internalNodes>
            0 -1 100 1.0913573205471039e-02</internalNodes>
          <leafValues>
            1.7362551391124725e-01 -6.2112444639205933e-01</leafValues></_>
        <_>
          <internalNodes>
            0 -1 92 -2.4074262008070946e-02</internalNodes>
          <leafValues>
            8.9183765649795532e-01 -1.6298052668571472e-01</leafValues></_>
        <_>
          <internalNodes>
            0 -1 20 1.6770171932876110e-03</internalNodes>
          <leafValues>
            1.7293657362461090e-01 -8.2907873392105103e-01</leafValues></_>
        <_>
          <internalNodes>
            0 -1 104 2.0334407687187195e-02</internalNodes>
          <leafValues>
            -2.0195364952087402e-01 7.5939941406250000e-01</leafValues></_>
        <_>
          <internalNodes>
            0 -1 55 -2.0773604512214661e-02</internalNodes>
          <leafValues>
            -7.7544248104095459e-01 1.9585369527339935e-01</leafValues></_></weakClassifiers></_>
    <!-- stage 9 -->
    <_>
      <maxWeakCount>15</maxWeakCount>
      <stageThreshold>-1.6892982721328735e+00</stageThreshold>
      <weakClassifiers>
        <_>
          <internalNodes>
            0 -1 75 -1.4782803133130074e-02</internalNodes>
          <leafValues>
            3.5365852713584900e-01 -7.6350092887878418e-01</leafValues></_>
        <_>
          <internalNodes>
            0 -1 7 3.4954383969306946e-02</internalNodes>
          <leafValues>
            -7.0855349302291870e-01 7.3480241000652313e-02</leafValues></_>
        <_>
          <internalNodes>
            0 -1 10 -3.2744562625885010e-01</internalNodes>
          <leafValues>
            1.0564962774515152e-01 -8.9975917339324951e-01</leafValues></_>
        <_>
          <internalNodes>
            0 -1 62 -1.0392417199909687e-02</internalNodes>
          <leafValues>
            7.9822152853012085e-01 -1.8779133260250092e-01</leafValues></_>
        <_>
          <internalNodes>
            0 -1 59 -1.7047699540853500e-02</internalNodes>
          <leafValues>
            2.6088353991508484e-01 -5.2638739347457886e-01</leafValues></_>
        <_>
          <internalNodes>
            0 -1 56 -8.2471489906311035e-02</internalNodes>
          <leafValues>
            -6.1952358484268188e-01 1.8120905756950378e-01</leafValues></_>
        <_>
          <internalNodes>
            0 -1 93 -4.5359367504715919e-03</internalNodes>
          <leafValues>
            7.1433037519454956e-01 -1.7017203569412231e-01</leafValues></_>
        <_>
          <internalNodes>
            0 -1 38 6.0827117413282394e-03</internalNodes>
          <leafValues>
            2.2600401937961578e-01 -5.5372977256774902e-01</leafValues></_>
        <_>
          <internalNodes>
            0 -1 23 -1.0092764161527157e-02</internalNodes>
          <leafValues>
            6.2389314174652100e-01 -1.9058641791343689e-01</leafValues></_>
        <_>
          <internalNodes>
            0 -1 37 8.4178190445527434e-04</internalNodes>
          <leafValues>
            1.3921478390693665e-01 -9.0461641550064087e-01</leafValues></_>
        <_>
          <internalNodes>
            0 -1 120 5.7551320642232895e-03</internalNodes>
          <leafValues>
            1.5309128165245056e-01 -6.0827434062957764e-01</leafValues></_>
        <_>
          <internalNodes>
            0 -1 111 -1.0419061873108149e-03</internalNodes>
          <leafValues>
            -8.9145916700363159e-01 9.7429394721984863e-02</leafValues></_>
        <_>
          <internalNodes>
            0 -1 102 4.9852500669658184e-03</internalNodes>
          <leafValues>
            -2.2898396849632263e-01 5.6744128465652466e-01</leafValues></_>
        <_>
          <internalNodes>
            0 -1 22 -1.2316554784774780e-03</internalNodes>
          <leafValues>
            -7.0173358917236328e-01 1.5568736195564270e-01</leafValues></_>
        <_>
          <internalNodes>
            0 -1 3 2.9227300547063351e-03</internalNodes>
          <leafValues>
            1.1724074929952621e-01 -7.7869957685470581e-01</leafValues></_></weakClassifiers></_>
    <!-- stage 10 -->
    <_>
      <maxWeakCount>13</maxWeakCount>
      <stageThreshold>-1.5909959077835083e+00</stageThreshold>
      <weakClassifiers>
        <_>
          <internalNodes>
            0 -1 83 -1.4650758355855942e-02</internalNodes>
          <leafValues>
            8.0000001192092896e-01 -7.0034247636795044e-01</leafValues></_>
        <_>
          <internalNodes>
            0 -1 70 4.2457254603505135e-03</internalNodes>
          <leafValues>
            -5.0205427408218384e-01 3.4279817342758179e-01</leafValues></_>
        <_>
          <internalNodes>
            0 -1 58 -3.1867455691099167e-02</internalNodes>
          <leafValues>
            3.2662764191627502e-01 -4.3861600756645203e-01</leafValues></_>
        <_>
          <internalNodes>
            0 -1 96 5.3192846477031708e-02</internalNodes>
          <leafValues>
            1.2131942063570023e-01 -8.5614776611328125e-01</leafValues></_>
        <_>
          <internalNodes>
            0 -1 118 -1.2448223680257797e-01</internalNodes>
          <leafValues>
            1.8509574234485626e-01 -6.0452407598495483e-01</leafValues></_>
        <_>
          <internalNodes>
            0 -1 88 -2.3721918463706970e-01</internalNodes>
          <leafValues>
            -3.9386519789695740e-01 2.7851772308349609e-01</leafValues></_>
        <_>
          <internalNodes>
            0 -1 97 3.1923362985253334e-03</internalNodes>
          <leafValues>
            -2.7500844001770020e-01 3.8560754060745239e-01</leafValues></_>
        <_>
          <internalNodes>
            0 -1 26 1.5813656151294708e-02</internalNodes>
          <leafValues>
            -3.2018867135047913e-01 3.6076077818870544e-01</leafValues></_>
        <_>
          <internalNodes>
            0 -1 73 1.3334169052541256e-03</internalNodes>
          <leafValues>
            -2.7175092697143555e-01 4.3793916702270508e-01</leafValues></_>
        <_>
          <internalNodes>
            0 -1 109 6.6570756025612354e-03</internalNodes>
          <leafValues>
            1.3800463080406189e-01 -7.8737902641296387e-01</leafValues></_>
        <_>
          <internalNodes>
            0 -1 43 7.8917723149061203e-03</internalNodes>
          <leafValues>
            -1.9350144267082214e-01 5.8274215459823608e-01</leafValues></_>
        <_>
          <internalNodes>
            0 -1 99 4.5838062651455402e-03</internalNodes>
          <leafValues>
            -2.5895047187805176e-01 4.0884062647819519e-01</leafValues></_>
        <_>
          <internalNodes>
            0 -1 6 8.1257958663627505e-04</internalNodes>
          <leafValues>
            1.2643678486347198e-01 -8.4298563003540039e-01</leafValues></_></weakClassifiers></_>
    <!-- stage 11 -->
    <_>
      <maxWeakCount>12</maxWeakCount>
      <stageThreshold>-1.3924200534820557e+00</stageThreshold>
      <weakClassifiers>
        <_>
          <internalNodes>
            0 -1 51 -2.9534500092267990e-02</internalNodes>
          <leafValues>
            4.3157893419265747e-01 -7.0253717899322510e-01</leafValues></_>
        <_>
          <internalNodes>
            0 -1 117 2.0507073029875755e-02</internalNodes>
          <leafValues>
            -4.4407892227172852e-01 3.3761826157569885e-01</leafValues></_>
        <_>
          <internalNodes>
            0 -1 14 1.4394301176071167e-01</internalNodes>
          <leafValues>
            1.3796938955783844e-01 -7.5883495807647705e-01</leafValues></_>
        <_>
          <internalNodes>
            0 -1 24 -1.0466677136719227e-02</internalNodes>
          <leafValues>
            -6.7516356706619263e-01 2.2568169236183167e-01</leafValues></_>
        <_>
          <internalNodes>
            0 -1 25 -2.3619547486305237e-02</internalNodes>
          <leafValues>
            -8.1187790632247925e-01 5.7032894343137741e-02</leafValues></_>
        <_>
          <internalNodes>
            0 -1 30 4.0039170533418655e-02</internalNodes>
          <leafValues>
            1.2616667151451111e-01 -7.7222311496734619e-01</leafValues></_>
        <_>
          <internalNodes>
            0 -1 42 -6.8814810365438461e-03</internalNodes>
          <leafValues>
            4.3852341175079346e-01 -2.5871503353118896e-01</leafValues></_>
        <_>
          <internalNodes>
            0 -1 121 -2.7374553028494120e-03</internalNodes>
          <leafValues>
            -7.9861593246459961e-01 1.2200645357370377e-01</leafValues></_>
        <_>
          <internalNodes>
            0 -1 105 -3.9700306951999664e-03</internalNodes>
          <leafValues>
            5.0001436471939087e-01 -2.1579156816005707e-01</leafValues></_>
        <_>
          <internalNodes>
            0 -1 46 4.7560920938849449e-03</internalNodes>
          <leafValues>
            -1.1633587628602982e-01 6.8817901611328125e-01</leafValues></_>
        <_>
          <internalNodes>
            0 -1 44 -1.4084590598940849e-02</internalNodes>
          <leafValues>
            -8.7099111080169678e-01 1.2674814462661743e-01</leafValues></_>
        <_>
          <internalNodes>
            0 -1 114 1.6366120427846909e-02</internalNodes>
          <leafValues>
            -2.1935206651687622e-01 4.9887862801551819e-01</leafValues></_></weakClassifiers></_></stages>
  <features>
    <_>
      <rects>
        <_>
          0 0 3 1 -1.</_>
        <_>
          1 0 1 1 2.</_></rects>
      <tilted>0</tilted></_>
    <_>
      <rects>
        <_>
          0 0 2 4 -1.</_>
        <_>
          0 0 1 2 2.</_>
        <_>
          1 2 1 2 2.</_></rects>
      <tilted>0</tilted></_>
    <_>
      <rects>
        <_>
          0 0 1 14 -1.</_>
        <_>
          0 7 1 7 2.</_></rects>
      <tilted>0</tilted></_>
    <_>
      <rects>
        <_>
          0 0 4 4 -1.</_>
        <_>
          0 0 2 2 2.</_>
        <_>
          2 2 2 2 2.</_></rects>
      <tilted>0</tilted></_>
    <_>
      <rects>
        <_>
          0 0 24 1 -1.</_>
        <_>
          12 0 12 1 2.</_></rects>
      <tilted>0</tilted></_>
    <_>
      <rects>
        <_>
          0 2 11 22 -1.</_>
        <_>
          0 13 11 11 2.</_></rects>
      <tilted>0</tilted></_>
    <_>
      <rects>
        <_>
          0 3 2 2 -1.</_>
        <_>
          0 3 1 1 2.</_>
        <_>
          1 4 1 1 2.</_></rects>
      <tilted>0</tilted></_>
    <_>
      <rects>
        <_>
          0 3 18 7 -1.</_>
        <_>
          9 3 9 7 2.</_></rects>
      <tilted>0</tilted></_>
    <_>
      <rects>
        <_>
          0 5 18 3 -1.</_>
        <_>
          9 5 9 3 2.</_></rects>
      <tilted>0</tilted></_>
    <_>
      <rects>
        <_>
          0 5 20 8 -1.</_>
        <_>
          0 5 10 4 2.</_>
        <_>
          10 9 10 4 2.</_></rects>
      <tilted>0</tilted></_>
    <_>
      <rects>
        <_>
          0 6 7 18 -1.</_>
        <_>
          0 12 7 6 2.</_></rects>
      <tilted>0</tilted></_>
    <_>
      <rects>
        <_>
          0 8 17 4 -1.</_>
        <_>
          0 10 17 2 2.</_></rects>
      <tilted>0</tilted></_>
    <_>
      <rects>
        <_>
          0 8 24 16 -1.</_>
        <_>
          0 16 24 8 2.</_></rects>
      <tilted>0</tilted></_>
    <_>
      <rects>
        <_>
          0 9 21 10 -1.</_>
        <_>
          0 14 21 5 2.</_></rects>
      <tilted>0</tilted></_>
    <_>
      <rects>
        <_>
          0 9 23 14 -1.</_>
        <_>
          0 16 23 7 2.</_></rects>
      <tilted>0</tilted></_>
    <_>
      <rects>
        <_>
          0 12 2 12 -1.</_>
        <_>
          0 18 2 6 2.</_></rects>
      <tilted>0</tilted></_>
    <_>
      <rects>
        <_>
          0 15 24 6 -1.</_>
        <_>
          0 18 24 3 2.</_></rects>
      <tilted>0</tilted></_>
    <_>
      <rects>
        <_>
          0 16 1 8 -1.</_>
        <_>
          0 20 1 4 2.</_></rects>
      <tilted>0</tilted></_>
    <_>
      <rects>
        <_>
          0 18 15 6 -1.</_>
        <_>
          0 21 15 3 2.</_></rects>
      <tilted>0</tilted></_>
    <_>
      <rects>
        <_>
          0 22 16 2 -1.</_>
        <_>
          8 22 8 2 2.</_></rects>
      <tilted>0</tilted></_>
    <_>
      <rects>
        <_>
          1 0 2 4 -1.</_>
        <_>
          2 0 1 4 2.</_></rects>
      <tilted>0</tilted></_>
    <_>
      <rects>
        <_>
          1 2 2 4 -1.</_>
        <_>
          1 2 1 2 2.</_>
        <_>
          2 4 1 2 2.</_></rects>
      <tilted>0</tilted></_>
    <_>
      <rects>
        <_>
          1 3 2 3 -1.</_>
        <_>
          2 3 1 3 2.</_></rects>
      <tilted>0</tilted></_>
    <_>
      <rects>
        <_>
          1 6 9 4 -1.</_>
        <_>
          1 8 9 2 2.</_></rects>
      <tilted>0</tilted></_>
    <_>
      <rects>
        <_>
          1 8 16 16 -1.</_>
        <_>
          1 16 16 8 2.</_></rects>
      <tilted>0</tilted></_>
    <_>
      <rects>
        <_>
          1 10 22 12 -1.</_>
        <_>
          1 10 11 6 2.</_>
        <_>
          12 16 11 6 2.</_></rects>
      <tilted>0</tilted></_>
    <_>
      <rects>
        <_>
          2 3 7 8 -1.</_>
        <_>
          2 7 7 4 2.</_></rects>
      <tilted>0</tilted></_>
    <_>
      <rects>
        <_>
          2 4 13 6 -1.</_>
        <_>
          2 6 13 2 2.</_></rects>
      <tilted>0</tilted></_>
    <_>
      <rects>
        <_>
          2 6 18 12 -1.</_>
        <_>
          2 12 18 6 2.</_></rects>
      <tilted>0</tilted></_>
    <_>
      <rects>
        <_>
          2 7 20 16 -1.</_>
        <_>
          2 7 10 8 2.</_>
        <_>
          12 15 10 8 2.</_></rects>
      <tilted>0</tilted></_>
    <_>
      <rects>
        <_>
          2 8 14 16 -1.</_>
        <_>
          2 8 7 8 2.</_>
        <_>
          9 16 7 8 2.</_></rects>
      <tilted>0</tilted></_>
    <_>
      <rects>
        <_>
          2 16 22 8 -1.</_>
        <_>
          13 16 11 8 2.</_></rects>
      <tilted>0</tilted></_>
    <_>
      <rects>
        <_>
          2 20 21 3 -1.</_>
        <_>
          9 20 7 3 2.</_></rects>
      <tilted>0</tilted></_>
    <_>
      <rects>
        <_>
          3 0 21 10 -1.</_>
        <_>
          10 0 7 10 2.</_></rects>
      <tilted>0</tilted></_>
    <_>
      <rects>
        <_>
          3 2 4 2 -1.</_>
        <_>
          5 2 2 2 2.</_></rects>
      <tilted>0</tilted></_>
    <_>
      <rects>
        <_>
          3 4 14 5 -1.</_>
        <_>
          10 4 7 5 2.</_></rects>
      <tilted>0</tilted></_>
    <_>
      <rects>
        <_>
          3 18 12 6 -1.</_>
        <_>
          3 21 12 3 2.</_></rects>
      <tilted>0</tilted></_>
    <_>
      <rects>
        <_>
          4 0 2 2 -1.</_>
        <_>
          4 0 1 1 2.</_>
        <_>
          5 1 1 1 2.</_></rects>
      <tilted>0</tilted></_>
    <_>
      <rects>
        <_>
          4 16 20 6 -1.</_>
        <_>
          4 19 20 3 2.</_></rects>
      <tilted>0</tilted></_>
    <_>
      <rects>
        <_>
          4 19 20 5 -1.</_>
        <_>
          14 19 10 5 2.</_></rects>
      <tilted>0</tilted></_>
    <_>
      <rects>
        <_>
          5 0 19 3 -1.</_>
        <_>
          5 1 19 1 2.</_></rects>
      <tilted>0</tilted></_>
    <_>
      <rects>
        <_>
          5 1 4 21 -1.</_>
        <_>
          5 8 4 7 2.</_></rects>
      <tilted>0</tilted></_>
    <_>
      <rects>
        <_>
          5 9 6 5 -1.</_>
        <_>
          8 9 3 5 2.</_></rects>
      <tilted>0</tilted></_>
    <_>
      <rects>
        <_>
          5 11 6 2 -1.</_>
        <_>
          8 11 3 2 2.</_></rects>
      <tilted>0</tilted></_>
    <_>
      <rects>
        <_>
          6 0 18 1 -1.</_>
        <_>
          15 0 9 1 2.</_></rects>
      <tilted>0</tilted></_>
    <_>
      <rects>
        <_>
          6 5 12 2 -1.</_>
        <_>
          12 5 6 2 2.</_></rects>
      <tilted>0</tilted></_>
    <_>
      <rects>
        <_>
          6 11 4 2 -1.</_>
        <_>
          6 12 4 1 2.</_></rects>
      <tilted>0</tilted></_>
    <_>
      <rects>
        <_>
          7 7 10 6 -1.</_>
        <_>
          7 10 10 3 2.</_></rects>
      <tilted>0</tilted></_>
    <_>
      <rects>
        <_>
          8 3 10 6 -1.</_>
        <_>
          13 3 5 6 2.</_></rects>
      <tilted>0</tilted></_>
    <_>
      <rects>
        <_>
          8 5 13 10 -1.</_>
        <_>
          8 10 13 5 2.</_></rects>
      <tilted>0</tilted></_>
    <_>
      <rects>
        <_>
          8 11 2 3 -1.</_>
        <_>
          9 11 1 3 2.</_></rects>
      <tilted>0</tilted></_>
    <_>
      <rects>
        <_>
          8 14 6 6 -1.</_>
        <_>
          8 14 3 3 2.</_>
        <_>
          11 17 3 3 2.</_></rects>
      <tilted>0</tilted></_>
    <_>
      <rects>
        <_>
          8 20 15 4 -1.</_>
        <_>
          8 22 15 2 2.</_></rects>
      <tilted>0</tilted></_>
    <_>
      <rects>
        <_>
          9 3 10 11 -1.</_>
        <_>
          14 3 5 11 2.</_></rects>
      <tilted>0</tilted></_>
    <_>
      <rects>
        <_>
          9 6 9 12 -1.</_>
        <_>
          9 10 9 4 2.</_></rects>
      <tilted>0</tilted></_>
    <_>
      <rects>
        <_>
          9 12 15 12 -1.</_>
        <_>
          9 18 15 6 2.</_></rects>
      <tilted>0</tilted></_>
    <_>
      <rects>
        <_>
          10 0 13 18 -1.</_>
        <_>
          10 9 13 9 2.</_></rects>
      <tilted>0</tilted></_>
    <_>
      <rects>
        <_>
          10 1 4 13 -1.</_>
        <_>
          12 1 2 13 2.</_></rects>
      <tilted>0</tilted></_>
    <_>
      <rects>
        <_>
          10 6 14 10 -1.</_>
        <_>
          17 6 7 10 2.</_></rects>
      <tilted>0</tilted></_>
    <_>
      <rects>
        <_>
          10 6 14 8 -1.</_>
        <_>
          10 10 14 4 2.</_></rects>
      <tilted>0</tilted></_>
    <_>
      <rects>
        <_>
          10 7 8 6 -1.</_>
        <_>
          10 10 8 3 2.</_></rects>
      <tilted>0</tilted></_>
    <_>
      <rects>
        <_>
          10 13 4 8 -1.</_>
        <_>
          10 13 2 4 2.</_>
        <_>
          12 17 2 4 2.</_></rects>
      <tilted>0</tilted></_>
    <_>
      <rects>
        <_>
          10 14 6 1 -1.</_>
        <_>
          13 14 3 1 2.</_></rects>
      <tilted>0</tilted></_>
    <_>
      <rects>
        <_>
          10 20 14 3 -1.</_>
        <_>
          17 20 7 3 2.</_></rects>
      <tilted>0</tilted></_>
    <_>
      <rects>
        <_>
          11 1 7 6 -1.</_>
        <_>
          11 4 7 3 2.</_></rects>
      <tilted>0</tilted></_>
    <_>
      <rects>
        <_>
          11 2 8 8 -1.</_>
        <_>
          15 2 4 8 2.</_></rects>
      <tilted>0</tilted></_>
    <_>
      <rects>
        <_>
          11 3 8 20 -1.</_>
        <_>
          11 13 8 10 2.</_></rects>
      <tilted>0</tilted></_>
    <_>
      <rects>
        <_>
          11 4 2 7 -1.</_>
        <_>
          12 4 1 7 2.</_></rects>
      <tilted>0</tilted></_>
    <_>
      <rects>
        <_>
          11 4 8 6 -1.</_>
        <_>
          15 4 4 6 2.</_></rects>
      <tilted>0</tilted></_>
    <_>
      <rects>
        <_>
          11 4 13 12 -1.</_>
        <_>
          11 10 13 6 2.</_></rects>
      <tilted>0</tilted></_>
    <_>
      <rects>
        <_>
          11 10 2 4 -1.</_>
        <_>
          11 12 2 2 2.</_></rects>
      <tilted>0</tilted></_>
    <_>
      <rects>
        <_>
          11 10 3 6 -1.</_>
        <_>
          11 13 3 3 2.</_></rects>
      <tilted>0</tilted></_>
    <_>
      <rects>
        <_>
          11 11 2 2 -1.</_>
        <_>
          11 12 2 1 2.</_></rects>
      <tilted>0</tilted></_>
    <_>
      <rects>
        <_>
          11 13 6 1 -1.</_>
        <_>
          14 13 3 1 2.</_></rects>
      <tilted>0</tilted></_>
    <_>
      <rects>
        <_>
          11 13 8 2 -1.</_>
        <_>
          15 13 4 2 2.</_></rects>
      <tilted>0</tilted></_>
    <_>
      <rects>
        <_>
          11 14 4 6 -1.</_>
        <_>
          11 17 4 3 2.</_></rects>
      <tilted>0</tilted></_>
    <_>
      <rects>
        <_>
          12 0 7 8 -1.</_>
        <_>
          12 4 7 4 2.</_></rects>
      <tilted>0</tilted></_>
    <_>
      <rects>
        <_>
          12 0 12 24 -1.</_>
        <_>
          12 12 12 12 2.</_></rects>
      <tilted>0</tilted></_>
    <_>
      <rects>
        <_>
          12 2 7 18 -1.</_>
        <_>
          12 11 7 9 2.</_></rects>
      <tilted>0</tilted></_>
    <_>
      <rects>
        <_>
          12 4 4 5 -1.</_>
        <_>
          14 4 2 5 2.</_></rects>
      <tilted>0</tilted></_>
    <_>
      <rects>
        <_>
          12 10 4 6 -1.</_>
        <_>
          12 10 2 3 2.</_>
        <_>
          14 13 2 3 2.</_></rects>
      <tilted>0</tilted></_>
    <_>
      <rects>
        <_>
          12 11 4 5 -1.</_>
        <_>
          14 11 2 5 2.</_></rects>
      <tilted>0</tilted></_>
    <_>
      <rects>
        <_>
          12 12 4 2 -1.</_>
        <_>
          14 12 2 2 2.</_></rects>
      <tilted>0</tilted></_>
    <_>
      <rects>
        <_>
          12 12 4 4 -1.</_>
        <_>
          12 12 2 2 2.</_>
        <_>
          14 14 2 2 2.</_></rects>
      <tilted>0</tilted></_>
    <_>
      <rects>
        <_>
          12 12 6 4 -1.</_>
        <_>
          15 12 3 4 2.</_></rects>
      <tilted>0</tilted></_>
    <_>
      <rects>
        <_>
          13 0 8 12 -1.</_>
        <_>
          13 4 8 4 2.</_></rects>
      <tilted>0</tilted></_>
    <_>
      <rects>
        <_>
          13 1 6 14 -1.</_>
        <_>
          16 1 3 14 2.</_></rects>
      <tilted>0</tilted></_>
    <_>
      <rects>
        <_>
          13 1 6 6 -1.</_>
        <_>
          13 4 6 3 2.</_></rects>
      <tilted>0</tilted></_>
    <_>
      <rects>
        <_>
          13 1 7 12 -1.</_>
        <_>
          13 5 7 4 2.</_></rects>
      <tilted>0</tilted></_>
    <_>
      <rects>
        <_>
          13 4 10 5 -1.</_>
        <_>
          18 4 5 5 2.</_></rects>
      <tilted>0</tilted></_>
    <_>
      <rects>
        <_>
          13 5 10 3 -1.</_>
        <_>
          18 5 5 3 2.</_></rects>
      <tilted>0</tilted></_>
    <_>
      <rects>
        <_>
          13 6 4 6 -1.</_>
        <_>
          13 9 4 3 2.</_></rects>
      <tilted>0</tilted></_>
    <_>
      <rects>
        <_>
          13 13 4 8 -1.</_>
        <_>
          13 13 2 4 2.</_>
        <_>
          15 17 2 4 2.</_></rects>
      <tilted>0</tilted></_>
    <_>
      <rects>
        <_>
          13 15 2 4 -1.</_>
        <_>
          13 15 1 2 2.</_>
        <_>
          14 17 1 2 2.</_></rects>
      <tilted>0</tilted></_>
    <_>
      <rects>
        <_>
          14 4 8 16 -1.</_>
        <_>
          14 4 4 8 2.</_>
        <_>
          18 12 4 8 2.</_></rects>
      <tilted>0</tilted></_>
    <_>
      <rects>
        <_>
          14 5 8 3 -1.</_>
        <_>
          18 5 4 3 2.</_></rects>
      <tilted>0</tilted></_>
    <_>
      <rects>
        <_>
          14 6 10 12 -1.</_>
        <_>
          14 12 10 6 2.</_></rects>
      <tilted>0</tilted></_>
    <_>
      <rects>
        <_>
          14 12 6 1 -1.</_>
        <_>
          17 12 3 1 2.</_></rects>
      <tilted>0</tilted></_>
    <_>
      <rects>
        <_>
          14 12 7 6 -1.</_>
        <_>
          14 15 7 3 2.</_></rects>
      <tilted>0</tilted></_>
    <_>
      <rects>
        <_>
          14 14 8 2 -1.</_>
        <_>
          14 15 8 1 2.</_></rects>
      <tilted>0</tilted></_>
    <_>
      <rects>
        <_>
          14 16 10 8 -1.</_>
        <_>
          14 20 10 4 2.</_></rects>
      <tilted>0</tilted></_>
    <_>
      <rects>
        <_>
          15 5 8 4 -1.</_>
        <_>
          19 5 4 4 2.</_></rects>
      <tilted>0</tilted></_>
    <_>
      <rects>
        <_>
          15 12 2 8 -1.</_>
        <_>
          15 12 1 4 2.</_>
        <_>
          16 16 1 4 2.</_></rects>
      <tilted>0</tilted></_>
    <_>
      <rects>
        <_>
          15 13 2 3 -1.</_>
        <_>
          16 13 1 3 2.</_></rects>
      <tilted>0</tilted></_>
    <_>
      <rects>
        <_>
          16 4 8 4 -1.</_>
        <_>
          20 4 4 4 2.</_></rects>
      <tilted>0</tilted></_>
    <_>
      <rects>
        <_>
          16 13 4 2 -1.</_>
        <_>
          18 13 2 2 2.</_></rects>
      <tilted>0</tilted></_>
    <_>
      <rects>
        <_>
          17 12 6 6 -1.</_>
        <_>
          20 12 3 6 2.</_></rects>
      <tilted>0</tilted></_>
    <_>
      <rects>
        <_>
          18 16 5 8 -1.</_>
        <_>
          18 20 5 4 2.</_></rects>
      <tilted>0</tilted></_>
    <_>
      <rects>
        <_>
          18 18 5 6 -1.</_>
        <_>
          18 21 5 3 2.</_></rects>
      <tilted>0</tilted></_>
    <_>
      <rects>
        <_>
          18 20 6 4 -1.</_>
        <_>
          21 20 3 4 2.</_></rects>
      <tilted>0</tilted></_>
    <_>
      <rects>
        <_>
          19 23 4 1 -1.</_>
        <_>
          21 23 2 1 2.</_></rects>
      <tilted>0</tilted></_>
    <_>
      <rects>
        <_>
          20 0 2 1 -1.</_>
        <_>
          21 0 1 1 2.</_></rects>
      <tilted>0</tilted></_>
    <_>
      <rects>
        <_>
          20 0 3 4 -1.</_>
        <_>
          21 0 1 4 2.</_></rects>
      <tilted>0</tilted></_>
    <_>
      <rects>
        <_>
          20 0 4 24 -1.</_>
        <_>
          20 8 4 8 2.</_></rects>
      <tilted>0</tilted></_>
    <_>
      <rects>
        <_>
          20 3 4 7 -1.</_>
        <_>
          22 3 2 7 2.</_></rects>
      <tilted>0</tilted></_>
    <_>
      <rects>
        <_>
          20 7 4 7 -1.</_>
        <_>
          22 7 2 7 2.</_></rects>
      <tilted>0</tilted></_>
    <_>
      <rects>
        <_>
          20 18 2 6 -1.</_>
        <_>
          20 21 2 3 2.</_></rects>
      <tilted>0</tilted></_>
    <_>
      <rects>
        <_>
          21 0 1 22 -1.</_>
        <_>
          21 11 1 11 2.</_></rects>
      <tilted>0</tilted></_>
    <_>
      <rects>
        <_>
          21 0 3 15 -1.</_>
        <_>
          21 5 3 5 2.</_></rects>
      <tilted>0</tilted></_>
    <_>
      <rects>
        <_>
          22 0 2 5 -1.</_>
        <_>
          23 0 1 5 2.</_></rects>
      <tilted>0</tilted></_>
    <_>
      <rects>
        <_>
          22 11 2 8 -1.</_>
        <_>
          22 15 2 4 2.</_></rects>
      <tilted>0</tilted></_>
    <_>
      <rects>
        <_>
          22 14 2 7 -1.</_>
        <_>
          23 14 1 7 2.</_></rects>
      <tilted>0</tilted></_>
    <_>
      <rects>
        <_>
          22 20 1 4 -1.</_>
        <_>
          22 22 1 2 2.</_></rects>
      <tilted>0</tilted></_>
    <_>
      <rects>
        <_>
          23 13 1 10 -1.</_>
        <_>
          23 18 1 5 2.</_></rects>
      <tilted>0</tilted></_></features></cascade>
</opencv_storage>
