<?xml version="1.0"?>
<opencv_storage>
<stage11>
  <maxWeakCount>12</maxWeakCount>
  <stageThreshold>-1.3924200534820557e+00</stageThreshold>
  <weakClassifiers>
    <_>
      <internalNodes>
        0 -1 97177 -2.9534500092267990e-02</internalNodes>
      <leafValues>
        4.3157893419265747e-01 -7.0253717899322510e-01</leafValues></_>
    <_>
      <internalNodes>
        0 -1 159781 2.0507073029875755e-02</internalNodes>
      <leafValues>
        -4.4407892227172852e-01 3.3761826157569885e-01</leafValues></_>
    <_>
      <internalNodes>
        0 -1 8795 1.4394301176071167e-01</internalNodes>
      <leafValues>
        1.3796938955783844e-01 -7.5883495807647705e-01</leafValues></_>
    <_>
      <internalNodes>
        0 -1 20843 -1.0466677136719227e-02</internalNodes>
      <leafValues>
        -6.7516356706619263e-01 2.2568169236183167e-01</leafValues></_>
    <_>
      <internalNodes>
        0 -1 21997 -2.3619547486305237e-02</internalNodes>
      <leafValues>
        -8.1187790632247925e-01 5.7032894343137741e-02</leafValues></_>
    <_>
      <internalNodes>
        0 -1 32894 4.0039170533418655e-02</internalNodes>
      <leafValues>
        1.2616667151451111e-01 -7.7222311496734619e-01</leafValues></_>
    <_>
      <internalNodes>
        0 -1 66801 -6.8814810365438461e-03</internalNodes>
      <leafValues>
        4.3852341175079346e-01 -2.5871503353118896e-01</leafValues></_>
    <_>
      <internalNodes>
        0 -1 161959 -2.7374553028494120e-03</internalNodes>
      <leafValues>
        -7.9861593246459961e-01 1.2200645357370377e-01</leafValues></_>
    <_>
      <internalNodes>
        0 -1 147440 -3.9700306951999664e-03</internalNodes>
      <leafValues>
        5.0001436471939087e-01 -2.1579156816005707e-01</leafValues></_>
    <_>
      <internalNodes>
        0 -1 77920 4.7560920938849449e-03</internalNodes>
      <leafValues>
        -1.1633587628602982e-01 6.8817901611328125e-01</leafValues></_>
    <_>
      <internalNodes>
        0 -1 71308 -1.4084590598940849e-02</internalNodes>
      <leafValues>
        -8.7099111080169678e-01 1.2674814462661743e-01</leafValues></_>
    <_>
      <internalNodes>
        0 -1 158192 1.6366120427846909e-02</internalNodes>
      <leafValues>
        -2.1935206651687622e-01 4.9887862801551819e-01</leafValues></_></weakClassifiers></stage11>
</opencv_storage>
