<?xml version="1.0"?>
<opencv_storage>
<stage1>
  <maxWeakCount>5</maxWeakCount>
  <stageThreshold>-1.5786757469177246e+00</stageThreshold>
  <weakClassifiers>
    <_>
      <internalNodes>
        0 -1 130406 -5.0684243440628052e-02</internalNodes>
      <leafValues>
        7.8378379344940186e-01 -8.6134850978851318e-01</leafValues></_>
    <_>
      <internalNodes>
        0 -1 38506 -8.8085305690765381e-01</internalNodes>
      <leafValues>
        -8.8081264495849609e-01 3.0097839236259460e-01</leafValues></_>
    <_>
      <internalNodes>
        0 -1 110925 -2.5587137788534164e-02</internalNodes>
      <leafValues>
        4.6039354801177979e-01 -5.9465694427490234e-01</leafValues></_>
    <_>
      <internalNodes>
        0 -1 151079 1.0183848440647125e-02</internalNodes>
      <leafValues>
        -4.2183396220207214e-01 5.5519789457321167e-01</leafValues></_>
    <_>
      <internalNodes>
        0 -1 154935 -1.6173619776964188e-02</internalNodes>
      <leafValues>
        -9.6202087402343750e-01 2.0294441282749176e-01</leafValues></_></weakClassifiers></stage1>
</opencv_storage>
